<?xml version="1.0"?>
<opencv_storage>
<cascade>
  <stageType>BOOST</stageType>
  <featureType>HAAR</featureType>
  <height>24</height>
  <width>24</width>
  <stageParams>
    <boostType>GAB</boostType>
    <minHitRate>9.9500000476837158e-01</minHitRate>
    <maxFalseAlarm>5.0000000000000000e-01</maxFalseAlarm>
    <weightTrimRate>9.4999998807907104e-01</weightTrimRate>
    <maxDepth>1</maxDepth>
    <maxWeakCount>100</maxWeakCount></stageParams>
  <featureParams>
    <maxCatCount>0</maxCatCount>
    <featSize>1</featSize>
    <mode>BASIC</mode></featureParams>
  <stageNum>16</stageNum>
  <stages>
    <!-- stage 0 -->
    <_>
      <maxWeakCount>4</maxWeakCount>
      <stageThreshold>-2.1575534343719482e+00</stageThreshold>
      <weakClassifiers>
        <_>
          <internalNodes>
            0 -1 21 3.8373827934265137e-01</internalNodes>
          <leafValues>
            -9.3560975790023804e-01 8.5714286565780640e-01</leafValues></_>
        <_>
          <internalNodes>
            0 -1 71 -1.0060453787446022e-02</internalNodes>
          <leafValues>
            4.7780969738960266e-01 -9.3293821811676025e-01</leafValues></_>
        <_>
          <internalNodes>
            0 -1 17 -1.3754444196820259e-02</internalNodes>
          <leafValues>
            7.5409674644470215e-01 -7.4944907426834106e-01</leafValues></_>
        <_>
          <internalNodes>
            0 -1 60 -9.5411045476794243e-03</internalNodes>
          <leafValues>
            4.6044355630874634e-01 -9.2220622301101685e-01</leafValues></_></weakClassifiers></_>
    <!-- stage 1 -->
    <_>
      <maxWeakCount>4</maxWeakCount>
      <stageThreshold>-1.9601690769195557e+00</stageThreshold>
      <weakClassifiers>
        <_>
          <internalNodes>
            0 -1 3 2.9777103662490845e-01</internalNodes>
          <leafValues>
            -9.3419742584228516e-01 5.5223882198333740e-01</leafValues></_>
        <_>
          <internalNodes>
            0 -1 0 3.8092792034149170e-02</internalNodes>
          <leafValues>
            -7.9406821727752686e-01 5.1589721441268921e-01</leafValues></_>
        <_>
          <internalNodes>
            0 -1 72 -1.1216513812541962e-02</internalNodes>
          <leafValues>
            7.6456773281097412e-01 -6.2434244155883789e-01</leafValues></_>
        <_>
          <internalNodes>
            0 -1 52 3.9763771928846836e-03</internalNodes>
          <leafValues>
            -9.8146003484725952e-01 3.9243891835212708e-01</leafValues></_></weakClassifiers></_>
    <!-- stage 2 -->
    <_>
      <maxWeakCount>4</maxWeakCount>
      <stageThreshold>-1.7167569398880005e+00</stageThreshold>
      <weakClassifiers>
        <_>
          <internalNodes>
            0 -1 20 4.9675884842872620e-01</internalNodes>
          <leafValues>
            -9.0267175436019897e-01 9.3258428573608398e-01</leafValues></_>
        <_>
          <internalNodes>
            0 -1 4 8.9975401759147644e-02</internalNodes>
          <leafValues>
            -8.9355278015136719e-01 3.9318156242370605e-01</leafValues></_>
        <_>
          <internalNodes>
            0 -1 49 4.8154883086681366e-02</internalNodes>
          <leafValues>
            -6.2527638673782349e-01 5.3037440776824951e-01</leafValues></_>
        <_>
          <internalNodes>
            0 -1 68 -1.4999757986515760e-03</internalNodes>
          <leafValues>
            8.6090916395187378e-01 -4.5090678334236145e-01</leafValues></_></weakClassifiers></_>
    <!-- stage 3 -->
    <_>
      <maxWeakCount>6</maxWeakCount>
      <stageThreshold>-1.9595345258712769e+00</stageThreshold>
      <weakClassifiers>
        <_>
          <internalNodes>
            0 -1 26 4.9827048182487488e-01</internalNodes>
          <leafValues>
            -8.8614803552627563e-01 8.5542166233062744e-01</leafValues></_>
        <_>
          <internalNodes>
            0 -1 12 3.8610234856605530e-02</internalNodes>
          <leafValues>
            -7.6672804355621338e-01 4.4832229614257813e-01</leafValues></_>
        <_>
          <internalNodes>
            0 -1 32 -2.9068896546959877e-03</internalNodes>
          <leafValues>
            4.6143054962158203e-01 -6.5340363979339600e-01</leafValues></_>
        <_>
          <internalNodes>
            0 -1 29 -2.1610744297504425e-01</internalNodes>
          <leafValues>
            3.6336952447891235e-01 -7.5360447168350220e-01</leafValues></_>
        <_>
          <internalNodes>
            0 -1 78 -1.6773673705756664e-03</internalNodes>
          <leafValues>
            7.3838871717453003e-01 -4.1145068407058716e-01</leafValues></_>
        <_>
          <internalNodes>
            0 -1 85 -1.3014718424528837e-03</internalNodes>
          <leafValues>
            -7.9967981576919556e-01 3.9482632279396057e-01</leafValues></_></weakClassifiers></_>
    <!-- stage 4 -->
    <_>
      <maxWeakCount>5</maxWeakCount>
      <stageThreshold>-2.3597919940948486e+00</stageThreshold>
      <weakClassifiers>
        <_>
          <internalNodes>
            0 -1 26 5.2700316905975342e-01</internalNodes>
          <leafValues>
            -8.7133395671844482e-01 7.2500002384185791e-01</leafValues></_>
        <_>
          <internalNodes>
            0 -1 73 -1.8448304384946823e-02</internalNodes>
          <leafValues>
            4.7172030806541443e-01 -7.0845049619674683e-01</leafValues></_>
        <_>
          <internalNodes>
            0 -1 38 -1.5085733139130753e-05</internalNodes>
          <leafValues>
            6.0918676853179932e-01 -5.2207100391387939e-01</leafValues></_>
        <_>
          <internalNodes>
            0 -1 44 2.4728069547563791e-05</internalNodes>
          <leafValues>
            -8.9149755239486694e-01 3.3663588762283325e-01</leafValues></_>
        <_>
          <internalNodes>
            0 -1 18 -1.2814323781640269e-05</internalNodes>
          <leafValues>
            5.3440403938293457e-01 -5.9457248449325562e-01</leafValues></_></weakClassifiers></_>
    <!-- stage 5 -->
    <_>
      <maxWeakCount>5</maxWeakCount>
      <stageThreshold>-1.5374737977981567e+00</stageThreshold>
      <weakClassifiers>
        <_>
          <internalNodes>
            0 -1 50 -1.9813650846481323e-01</internalNodes>
          <leafValues>
            2.1568627655506134e-01 -9.1056913137435913e-01</leafValues></_>
        <_>
          <internalNodes>
            0 -1 36 -4.8126894980669022e-03</internalNodes>
          <leafValues>
            2.8243088722229004e-01 -8.0504626035690308e-01</leafValues></_>
        <_>
          <internalNodes>
            0 -1 10 4.8314565792679787e-03</internalNodes>
          <leafValues>
            -6.7986637353897095e-01 3.2639881968498230e-01</leafValues></_>
        <_>
          <internalNodes>
            0 -1 45 1.6157899051904678e-02</internalNodes>
          <leafValues>
            2.1345537900924683e-01 -9.5482116937637329e-01</leafValues></_>
        <_>
          <internalNodes>
            0 -1 48 1.6986883711069822e-03</internalNodes>
          <leafValues>
            -3.6171263456344604e-01 6.9162642955780029e-01</leafValues></_></weakClassifiers></_>
    <!-- stage 6 -->
    <_>
      <maxWeakCount>5</maxWeakCount>
      <stageThreshold>-1.5469113588333130e+00</stageThreshold>
      <weakClassifiers>
        <_>
          <internalNodes>
            0 -1 81 -3.2188184559345245e-02</internalNodes>
          <leafValues>
            4.8314607143402100e-01 -8.6450380086898804e-01</leafValues></_>
        <_>
          <internalNodes>
            0 -1 64 -3.5665966570377350e-02</internalNodes>
          <leafValues>
            4.7483932971954346e-01 -6.7739403247833252e-01</leafValues></_>
        <_>
          <internalNodes>
            0 -1 43 2.7346573770046234e-03</internalNodes>
          <leafValues>
            -5.0524759292602539e-01 6.4443325996398926e-01</leafValues></_>
        <_>
          <internalNodes>
            0 -1 79 -1.9862768240272999e-03</internalNodes>
          <leafValues>
            7.7574151754379272e-01 -3.1900686025619507e-01</leafValues></_>
        <_>
          <internalNodes>
            0 -1 82 -5.5841049179434776e-03</internalNodes>
          <leafValues>
            8.5054308176040649e-01 -2.7550745010375977e-01</leafValues></_></weakClassifiers></_>
    <!-- stage 7 -->
    <_>
      <maxWeakCount>6</maxWeakCount>
      <stageThreshold>-2.2975378036499023e+00</stageThreshold>
      <weakClassifiers>
        <_>
          <internalNodes>
            0 -1 31 -3.5526072978973389e-01</internalNodes>
          <leafValues>
            3.2800000905990601e-01 -8.9328062534332275e-01</leafValues></_>
        <_>
          <internalNodes>
            0 -1 28 -2.2373409941792488e-02</internalNodes>
          <leafValues>
            4.3715697526931763e-01 -6.1966246366500854e-01</leafValues></_>
        <_>
          <internalNodes>
            0 -1 39 2.3204348981380463e-02</internalNodes>
          <leafValues>
            -7.5053751468658447e-01 2.6642227172851563e-01</leafValues></_>
        <_>
          <internalNodes>
            0 -1 25 3.8188057951629162e-03</internalNodes>
          <leafValues>
            2.1460738778114319e-01 -8.8917762041091919e-01</leafValues></_>
        <_>
          <internalNodes>
            0 -1 83 -4.0309629403054714e-03</internalNodes>
          <leafValues>
            -8.7770354747772217e-01 2.0116946101188660e-01</leafValues></_>
        <_>
          <internalNodes>
            0 -1 14 1.6591075807809830e-02</internalNodes>
          <leafValues>
            -4.4983413815498352e-01 5.0333690643310547e-01</leafValues></_></weakClassifiers></_>
    <!-- stage 8 -->
    <_>
      <maxWeakCount>6</maxWeakCount>
      <stageThreshold>-1.9704942703247070e+00</stageThreshold>
      <weakClassifiers>
        <_>
          <internalNodes>
            0 -1 27 6.4560270309448242e-01</internalNodes>
          <leafValues>
            -8.2994455099105835e-01 6.3636362552642822e-01</leafValues></_>
        <_>
          <internalNodes>
            0 -1 80 1.0502479039132595e-02</internalNodes>
          <leafValues>
            -5.6678217649459839e-01 5.5714970827102661e-01</leafValues></_>
        <_>
          <internalNodes>
            0 -1 1 3.6174714565277100e-02</internalNodes>
          <leafValues>
            -6.7538172006607056e-01 3.4778088331222534e-01</leafValues></_>
        <_>
          <internalNodes>
            0 -1 8 1.5512020327150822e-03</internalNodes>
          <leafValues>
            2.2707174718379974e-01 -8.1797122955322266e-01</leafValues></_>
        <_>
          <internalNodes>
            0 -1 34 3.7164816167205572e-03</internalNodes>
          <leafValues>
            -3.8913035392761230e-01 6.0152310132980347e-01</leafValues></_>
        <_>
          <internalNodes>
            0 -1 75 -7.5213419040665030e-04</internalNodes>
          <leafValues>
            -8.5931146144866943e-01 2.6367270946502686e-01</leafValues></_></weakClassifiers></_>
    <!-- stage 9 -->
    <_>
      <maxWeakCount>4</maxWeakCount>
      <stageThreshold>-1.5607408285140991e+00</stageThreshold>
      <weakClassifiers>
        <_>
          <internalNodes>
            0 -1 2 1.3972403109073639e-01</internalNodes>
          <leafValues>
            -9.0748900175094604e-01 -1.7030568420886993e-01</leafValues></_>
        <_>
          <internalNodes>
            0 -1 70 8.2326140254735947e-03</internalNodes>
          <leafValues>
            -6.5640288591384888e-01 2.5284150242805481e-01</leafValues></_>
        <_>
          <internalNodes>
            0 -1 19 1.4870121376588941e-03</internalNodes>
          <leafValues>
            -8.8663995265960693e-01 1.5164370834827423e-01</leafValues></_>
        <_>
          <internalNodes>
            0 -1 46 4.3591614812612534e-03</internalNodes>
          <leafValues>
            1.5782491862773895e-01 -8.8567590713500977e-01</leafValues></_></weakClassifiers></_>
    <!-- stage 10 -->
    <_>
      <maxWeakCount>6</maxWeakCount>
      <stageThreshold>-1.6598256826400757e+00</stageThreshold>
      <weakClassifiers>
        <_>
          <internalNodes>
            0 -1 23 -4.4358319044113159e-01</internalNodes>
          <leafValues>
            2.5773194432258606e-01 -8.5384613275527954e-01</leafValues></_>
        <_>
          <internalNodes>
            0 -1 11 1.4604719355702400e-02</internalNodes>
          <leafValues>
            -6.2270641326904297e-01 2.0177985727787018e-01</leafValues></_>
        <_>
          <internalNodes>
            0 -1 59 -9.4724576920270920e-03</internalNodes>
          <leafValues>
            -9.3863481283187866e-01 1.7632313072681427e-01</leafValues></_>
        <_>
          <internalNodes>
            0 -1 55 9.3422853387892246e-04</internalNodes>
          <leafValues>
            -3.7079292535781860e-01 5.5607002973556519e-01</leafValues></_>
        <_>
          <internalNodes>
            0 -1 57 1.4674221165478230e-03</internalNodes>
          <leafValues>
            -2.4621474742889404e-01 8.1300342082977295e-01</leafValues></_>
        <_>
          <internalNodes>
            0 -1 41 -1.3218495994806290e-02</internalNodes>
          <leafValues>
            -1. 2.5741145014762878e-01</leafValues></_></weakClassifiers></_>
    <!-- stage 11 -->
    <_>
      <maxWeakCount>7</maxWeakCount>
      <stageThreshold>-2.0038666725158691e+00</stageThreshold>
      <weakClassifiers>
        <_>
          <internalNodes>
            0 -1 30 -3.5813096910715103e-02</internalNodes>
          <leafValues>
            3.5294118523597717e-01 -8.2974743843078613e-01</leafValues></_>
        <_>
          <internalNodes>
            0 -1 69 1.7716445028781891e-02</internalNodes>
          <leafValues>
            -5.7420271635055542e-01 4.8578029870986938e-01</leafValues></_>
        <_>
          <internalNodes>
            0 -1 7 2.5152804329991341e-02</internalNodes>
          <leafValues>
            -5.2445292472839355e-01 3.9665347337722778e-01</leafValues></_>
        <_>
          <internalNodes>
            0 -1 65 3.5069547593593597e-03</internalNodes>
          <leafValues>
            -2.5308987498283386e-01 7.4556022882461548e-01</leafValues></_>
        <_>
          <internalNodes>
            0 -1 61 1.7098337411880493e-03</internalNodes>
          <leafValues>
            2.3494505882263184e-01 -8.9823859930038452e-01</leafValues></_>
        <_>
          <internalNodes>
            0 -1 58 -3.4830286167562008e-03</internalNodes>
          <leafValues>
            -7.2455555200576782e-01 2.8559479117393494e-01</leafValues></_>
        <_>
          <internalNodes>
            0 -1 66 -5.8635650202631950e-04</internalNodes>
          <leafValues>
            6.5249693393707275e-01 -3.4291359782218933e-01</leafValues></_></weakClassifiers></_>
    <!-- stage 12 -->
    <_>
      <maxWeakCount>7</maxWeakCount>
      <stageThreshold>-1.7760740518569946e+00</stageThreshold>
      <weakClassifiers>
        <_>
          <internalNodes>
            0 -1 6 1.5627846121788025e-02</internalNodes>
          <leafValues>
            -8.5884690284729004e-01 7.6335878111422062e-03</leafValues></_>
        <_>
          <internalNodes>
            0 -1 62 -7.7117681503295898e-02</internalNodes>
          <leafValues>
            1.4324671030044556e-01 -7.0940583944320679e-01</leafValues></_>
        <_>
          <internalNodes>
            0 -1 53 -3.8657576078549027e-04</internalNodes>
          <leafValues>
            5.8356547355651855e-01 -3.7364596128463745e-01</leafValues></_>
        <_>
          <internalNodes>
            0 -1 54 5.2550935652107000e-04</internalNodes>
          <leafValues>
            -3.7329840660095215e-01 5.8861500024795532e-01</leafValues></_>
        <_>
          <internalNodes>
            0 -1 47 1.5641252975910902e-03</internalNodes>
          <leafValues>
            -7.3351454734802246e-01 2.6572218537330627e-01</leafValues></_>
        <_>
          <internalNodes>
            0 -1 13 1.5846163034439087e-02</internalNodes>
          <leafValues>
            2.2095569968223572e-01 -8.3927834033966064e-01</leafValues></_>
        <_>
          <internalNodes>
            0 -1 16 7.9233525320887566e-03</internalNodes>
          <leafValues>
            1.5546780824661255e-01 -9.4377833604812622e-01</leafValues></_></weakClassifiers></_>
    <!-- stage 13 -->
    <_>
      <maxWeakCount>6</maxWeakCount>
      <stageThreshold>-1.5374866724014282e+00</stageThreshold>
      <weakClassifiers>
        <_>
          <internalNodes>
            0 -1 5 -3.7480220198631287e-02</internalNodes>
          <leafValues>
            -1.5151515603065491e-01 -8.8711392879486084e-01</leafValues></_>
        <_>
          <internalNodes>
            0 -1 22 2.5237989425659180e-01</internalNodes>
          <leafValues>
            -6.1781126260757446e-01 3.0566352605819702e-01</leafValues></_>
        <_>
          <internalNodes>
            0 -1 63 -2.1986301988363266e-02</internalNodes>
          <leafValues>
            3.3702415227890015e-01 -4.9252581596374512e-01</leafValues></_>
        <_>
          <internalNodes>
            0 -1 35 -1.5447547193616629e-03</internalNodes>
          <leafValues>
            5.5261886119842529e-01 -3.5294640064239502e-01</leafValues></_>
        <_>
          <internalNodes>
            0 -1 67 -1.4612043742090464e-05</internalNodes>
          <leafValues>
            3.6519408226013184e-01 -4.8577174544334412e-01</leafValues></_>
        <_>
          <internalNodes>
            0 -1 42 -7.0713916793465614e-03</internalNodes>
          <leafValues>
            6.5671151876449585e-01 -2.6646620035171509e-01</leafValues></_></weakClassifiers></_>
    <!-- stage 14 -->
    <_>
      <maxWeakCount>6</maxWeakCount>
      <stageThreshold>-1.3642703294754028e+00</stageThreshold>
      <weakClassifiers>
        <_>
          <internalNodes>
            0 -1 24 -4.3298369646072388e-01</internalNodes>
          <leafValues>
            5.1999998092651367e-01 -8.1784731149673462e-01</leafValues></_>
        <_>
          <internalNodes>
            0 -1 40 -2.2541787475347519e-02</internalNodes>
          <leafValues>
            4.9464169889688492e-02 -8.6433178186416626e-01</leafValues></_>
        <_>
          <internalNodes>
            0 -1 56 -4.2358100414276123e-02</internalNodes>
          <leafValues>
            1.1327663809061050e-01 -7.8753364086151123e-01</leafValues></_>
        <_>
          <internalNodes>
            0 -1 33 -5.9000391047447920e-04</internalNodes>
          <leafValues>
            3.5164722800254822e-01 -5.0673753023147583e-01</leafValues></_>
        <_>
          <internalNodes>
            0 -1 37 3.4136534668505192e-03</internalNodes>
          <leafValues>
            -2.5931560993194580e-01 7.4882435798645020e-01</leafValues></_>
        <_>
          <internalNodes>
            0 -1 84 3.2601123675704002e-03</internalNodes>
          <leafValues>
            2.3136205971240997e-01 -8.0149549245834351e-01</leafValues></_></weakClassifiers></_>
    <!-- stage 15 -->
    <_>
      <maxWeakCount>7</maxWeakCount>
      <stageThreshold>-1.3567093610763550e+00</stageThreshold>
      <weakClassifiers>
        <_>
          <internalNodes>
            0 -1 76 2.2195288911461830e-02</internalNodes>
          <leafValues>
            -8.1187212467193604e-01 6.1904764175415039e-01</leafValues></_>
        <_>
          <internalNodes>
            0 -1 23 -4.0509015321731567e-01</internalNodes>
          <leafValues>
            3.3731541037559509e-01 -5.4673171043395996e-01</leafValues></_>
        <_>
          <internalNodes>
            0 -1 74 1.4588911653845571e-05</internalNodes>
          <leafValues>
            -5.4306566715240479e-01 3.8499996066093445e-01</leafValues></_>
        <_>
          <internalNodes>
            0 -1 51 -2.1493539679795504e-04</internalNodes>
          <leafValues>
            3.5624030232429504e-01 -5.2719205617904663e-01</leafValues></_>
        <_>
          <internalNodes>
            0 -1 9 -3.4590423107147217e-02</internalNodes>
          <leafValues>
            3.3101135492324829e-01 -5.2155584096908569e-01</leafValues></_>
        <_>
          <internalNodes>
            0 -1 15 -8.0620227381587029e-03</internalNodes>
          <leafValues>
            -9.8588991165161133e-01 1.8734310567378998e-01</leafValues></_>
        <_>
          <internalNodes>
            0 -1 77 -1.2033770326524973e-03</internalNodes>
          <leafValues>
            5.7982975244522095e-01 -3.2963460683822632e-01</leafValues></_></weakClassifiers></_></stages>
  <features>
    <_>
      <rects>
        <_>
          0 1 12 8 -1.</_>
        <_>
          0 1 6 4 2.</_>
        <_>
          6 5 6 4 2.</_></rects>
      <tilted>0</tilted></_>
    <_>
      <rects>
        <_>
          0 3 10 6 -1.</_>
        <_>
          5 3 5 6 2.</_></rects>
      <tilted>0</tilted></_>
    <_>
      <rects>
        <_>
          0 5 10 10 -1.</_>
        <_>
          5 5 5 10 2.</_></rects>
      <tilted>0</tilted></_>
    <_>
      <rects>
        <_>
          0 7 24 8 -1.</_>
        <_>
          8 7 8 8 3.</_></rects>
      <tilted>0</tilted></_>
    <_>
      <rects>
        <_>
          0 10 24 5 -1.</_>
        <_>
          8 10 8 5 3.</_></rects>
      <tilted>0</tilted></_>
    <_>
      <rects>
        <_>
          0 11 8 8 -1.</_>
        <_>
          0 11 4 4 2.</_>
        <_>
          4 15 4 4 2.</_></rects>
      <tilted>0</tilted></_>
    <_>
      <rects>
        <_>
          0 12 8 1 -1.</_>
        <_>
          4 12 4 1 2.</_></rects>
      <tilted>0</tilted></_>
    <_>
      <rects>
        <_>
          1 3 12 6 -1.</_>
        <_>
          5 3 4 6 3.</_></rects>
      <tilted>0</tilted></_>
    <_>
      <rects>
        <_>
          1 4 2 10 -1.</_>
        <_>
          2 4 1 10 2.</_></rects>
      <tilted>0</tilted></_>
    <_>
      <rects>
        <_>
          1 4 6 20 -1.</_>
        <_>
          1 4 3 10 2.</_>
        <_>
          4 14 3 10 2.</_></rects>
      <tilted>0</tilted></_>
    <_>
      <rects>
        <_>
          1 11 12 1 -1.</_>
        <_>
          5 11 4 1 3.</_></rects>
      <tilted>0</tilted></_>
    <_>
      <rects>
        <_>
          2 2 6 6 -1.</_>
        <_>
          2 2 3 3 2.</_>
        <_>
          5 5 3 3 2.</_></rects>
      <tilted>0</tilted></_>
    <_>
      <rects>
        <_>
          2 5 6 7 -1.</_>
        <_>
          5 5 3 7 2.</_></rects>
      <tilted>0</tilted></_>
    <_>
      <rects>
        <_>
          2 7 18 6 -1.</_>
        <_>
          2 7 9 3 2.</_>
        <_>
          11 10 9 3 2.</_></rects>
      <tilted>0</tilted></_>
    <_>
      <rects>
        <_>
          3 3 6 11 -1.</_>
        <_>
          5 3 2 11 3.</_></rects>
      <tilted>0</tilted></_>
    <_>
      <rects>
        <_>
          3 6 6 6 -1.</_>
        <_>
          3 6 3 3 2.</_>
        <_>
          6 9 3 3 2.</_></rects>
      <tilted>0</tilted></_>
    <_>
      <rects>
        <_>
          3 7 6 4 -1.</_>
        <_>
          3 9 6 2 2.</_></rects>
      <tilted>0</tilted></_>
    <_>
      <rects>
        <_>
          3 8 4 12 -1.</_>
        <_>
          3 8 2 6 2.</_>
        <_>
          5 14 2 6 2.</_></rects>
      <tilted>0</tilted></_>
    <_>
      <rects>
        <_>
          3 13 2 2 -1.</_>
        <_>
          3 13 1 1 2.</_>
        <_>
          4 14 1 1 2.</_></rects>
      <tilted>0</tilted></_>
    <_>
      <rects>
        <_>
          4 6 8 3 -1.</_>
        <_>
          8 6 4 3 2.</_></rects>
      <tilted>0</tilted></_>
    <_>
      <rects>
        <_>
          5 0 11 21 -1.</_>
        <_>
          5 7 11 7 3.</_></rects>
      <tilted>0</tilted></_>
    <_>
      <rects>
        <_>
          5 0 12 21 -1.</_>
        <_>
          5 7 12 7 3.</_></rects>
      <tilted>0</tilted></_>
    <_>
      <rects>
        <_>
          5 0 13 12 -1.</_>
        <_>
          5 6 13 6 2.</_></rects>
      <tilted>0</tilted></_>
    <_>
      <rects>
        <_>
          5 6 12 18 -1.</_>
        <_>
          5 15 12 9 2.</_></rects>
      <tilted>0</tilted></_>
    <_>
      <rects>
        <_>
          5 7 12 16 -1.</_>
        <_>
          5 15 12 8 2.</_></rects>
      <tilted>0</tilted></_>
    <_>
      <rects>
        <_>
          5 18 9 6 -1.</_>
        <_>
          8 18 3 6 3.</_></rects>
      <tilted>0</tilted></_>
    <_>
      <rects>
        <_>
          6 0 10 21 -1.</_>
        <_>
          6 7 10 7 3.</_></rects>
      <tilted>0</tilted></_>
    <_>
      <rects>
        <_>
          6 0 11 21 -1.</_>
        <_>
          6 7 11 7 3.</_></rects>
      <tilted>0</tilted></_>
    <_>
      <rects>
        <_>
          6 2 5 6 -1.</_>
        <_>
          6 4 5 2 3.</_></rects>
      <tilted>0</tilted></_>
    <_>
      <rects>
        <_>
          6 5 18 18 -1.</_>
        <_>
          6 14 18 9 2.</_></rects>
      <tilted>0</tilted></_>
    <_>
      <rects>
        <_>
          6 6 1 16 -1.</_>
        <_>
          6 14 1 8 2.</_></rects>
      <tilted>0</tilted></_>
    <_>
      <rects>
        <_>
          6 6 10 18 -1.</_>
        <_>
          6 15 10 9 2.</_></rects>
      <tilted>0</tilted></_>
    <_>
      <rects>
        <_>
          6 7 7 6 -1.</_>
        <_>
          6 9 7 2 3.</_></rects>
      <tilted>0</tilted></_>
    <_>
      <rects>
        <_>
          6 11 6 4 -1.</_>
        <_>
          8 11 2 4 3.</_></rects>
      <tilted>0</tilted></_>
    <_>
      <rects>
        <_>
          7 5 4 3 -1.</_>
        <_>
          7 6 4 1 3.</_></rects>
      <tilted>0</tilted></_>
    <_>
      <rects>
        <_>
          7 5 7 4 -1.</_>
        <_>
          7 7 7 2 2.</_></rects>
      <tilted>0</tilted></_>
    <_>
      <rects>
        <_>
          7 7 8 6 -1.</_>
        <_>
          7 9 8 2 3.</_></rects>
      <tilted>0</tilted></_>
    <_>
      <rects>
        <_>
          7 9 3 4 -1.</_>
        <_>
          8 9 1 4 3.</_></rects>
      <tilted>0</tilted></_>
    <_>
      <rects>
        <_>
          7 11 2 1 -1.</_>
        <_>
          8 11 1 1 2.</_></rects>
      <tilted>0</tilted></_>
    <_>
      <rects>
        <_>
          7 11 15 9 -1.</_>
        <_>
          12 11 5 9 3.</_></rects>
      <tilted>0</tilted></_>
    <_>
      <rects>
        <_>
          7 11 16 11 -1.</_>
        <_>
          15 11 8 11 2.</_></rects>
      <tilted>0</tilted></_>
    <_>
      <rects>
        <_>
          8 3 6 21 -1.</_>
        <_>
          11 3 3 21 2.</_></rects>
      <tilted>0</tilted></_>
    <_>
      <rects>
        <_>
          8 4 5 3 -1.</_>
        <_>
          8 5 5 1 3.</_></rects>
      <tilted>0</tilted></_>
    <_>
      <rects>
        <_>
          8 11 3 3 -1.</_>
        <_>
          8 12 3 1 3.</_></rects>
      <tilted>0</tilted></_>
    <_>
      <rects>
        <_>
          8 12 6 5 -1.</_>
        <_>
          11 12 3 5 2.</_></rects>
      <tilted>0</tilted></_>
    <_>
      <rects>
        <_>
          8 12 6 11 -1.</_>
        <_>
          11 12 3 11 2.</_></rects>
      <tilted>0</tilted></_>
    <_>
      <rects>
        <_>
          9 0 6 9 -1.</_>
        <_>
          12 0 3 9 2.</_></rects>
      <tilted>0</tilted></_>
    <_>
      <rects>
        <_>
          9 0 8 22 -1.</_>
        <_>
          9 0 4 11 2.</_>
        <_>
          13 11 4 11 2.</_></rects>
      <tilted>0</tilted></_>
    <_>
      <rects>
        <_>
          9 10 3 2 -1.</_>
        <_>
          10 10 1 2 3.</_></rects>
      <tilted>0</tilted></_>
    <_>
      <rects>
        <_>
          10 1 10 8 -1.</_>
        <_>
          10 5 10 4 2.</_></rects>
      <tilted>0</tilted></_>
    <_>
      <rects>
        <_>
          10 6 14 9 -1.</_>
        <_>
          17 6 7 9 2.</_></rects>
      <tilted>0</tilted></_>
    <_>
      <rects>
        <_>
          10 8 4 2 -1.</_>
        <_>
          10 9 4 1 2.</_></rects>
      <tilted>0</tilted></_>
    <_>
      <rects>
        <_>
          10 8 8 10 -1.</_>
        <_>
          10 8 4 5 2.</_>
        <_>
          14 13 4 5 2.</_></rects>
      <tilted>0</tilted></_>
    <_>
      <rects>
        <_>
          10 10 2 1 -1.</_>
        <_>
          11 10 1 1 2.</_></rects>
      <tilted>0</tilted></_>
    <_>
      <rects>
        <_>
          10 10 3 1 -1.</_>
        <_>
          11 10 1 1 3.</_></rects>
      <tilted>0</tilted></_>
    <_>
      <rects>
        <_>
          10 10 2 4 -1.</_>
        <_>
          10 10 1 2 2.</_>
        <_>
          11 12 1 2 2.</_></rects>
      <tilted>0</tilted></_>
    <_>
      <rects>
        <_>
          10 10 4 12 -1.</_>
        <_>
          10 16 4 6 2.</_></rects>
      <tilted>0</tilted></_>
    <_>
      <rects>
        <_>
          10 11 3 1 -1.</_>
        <_>
          11 11 1 1 3.</_></rects>
      <tilted>0</tilted></_>
    <_>
      <rects>
        <_>
          10 19 12 5 -1.</_>
        <_>
          14 19 4 5 3.</_></rects>
      <tilted>0</tilted></_>
    <_>
      <rects>
        <_>
          11 1 9 5 -1.</_>
        <_>
          14 1 3 5 3.</_></rects>
      <tilted>0</tilted></_>
    <_>
      <rects>
        <_>
          11 7 1 14 -1.</_>
        <_>
          11 14 1 7 2.</_></rects>
      <tilted>0</tilted></_>
    <_>
      <rects>
        <_>
          11 22 9 2 -1.</_>
        <_>
          14 22 3 2 3.</_></rects>
      <tilted>0</tilted></_>
    <_>
      <rects>
        <_>
          12 0 12 12 -1.</_>
        <_>
          12 0 6 6 2.</_>
        <_>
          18 6 6 6 2.</_></rects>
      <tilted>0</tilted></_>
    <_>
      <rects>
        <_>
          12 1 12 18 -1.</_>
        <_>
          12 1 6 9 2.</_>
        <_>
          18 10 6 9 2.</_></rects>
      <tilted>0</tilted></_>
    <_>
      <rects>
        <_>
          12 3 12 6 -1.</_>
        <_>
          12 3 6 3 2.</_>
        <_>
          18 6 6 3 2.</_></rects>
      <tilted>0</tilted></_>
    <_>
      <rects>
        <_>
          12 9 3 3 -1.</_>
        <_>
          13 9 1 3 3.</_></rects>
      <tilted>0</tilted></_>
    <_>
      <rects>
        <_>
          12 10 3 1 -1.</_>
        <_>
          13 10 1 1 3.</_></rects>
      <tilted>0</tilted></_>
    <_>
      <rects>
        <_>
          12 13 2 6 -1.</_>
        <_>
          12 13 1 3 2.</_>
        <_>
          13 16 1 3 2.</_></rects>
      <tilted>0</tilted></_>
    <_>
      <rects>
        <_>
          13 4 1 3 -1.</_>
        <_>
          13 5 1 1 3.</_></rects>
      <tilted>0</tilted></_>
    <_>
      <rects>
        <_>
          13 11 3 6 -1.</_>
        <_>
          13 13 3 2 3.</_></rects>
      <tilted>0</tilted></_>
    <_>
      <rects>
        <_>
          13 12 6 3 -1.</_>
        <_>
          15 12 2 3 3.</_></rects>
      <tilted>0</tilted></_>
    <_>
      <rects>
        <_>
          13 12 2 8 -1.</_>
        <_>
          13 16 2 4 2.</_></rects>
      <tilted>0</tilted></_>
    <_>
      <rects>
        <_>
          13 14 3 4 -1.</_>
        <_>
          13 16 3 2 2.</_></rects>
      <tilted>0</tilted></_>
    <_>
      <rects>
        <_>
          14 13 8 2 -1.</_>
        <_>
          18 13 4 2 2.</_></rects>
      <tilted>0</tilted></_>
    <_>
      <rects>
        <_>
          14 14 2 5 -1.</_>
        <_>
          15 14 1 5 2.</_></rects>
      <tilted>0</tilted></_>
    <_>
      <rects>
        <_>
          15 2 6 1 -1.</_>
        <_>
          17 2 2 1 3.</_></rects>
      <tilted>0</tilted></_>
    <_>
      <rects>
        <_>
          15 7 3 10 -1.</_>
        <_>
          16 7 1 10 3.</_></rects>
      <tilted>0</tilted></_>
    <_>
      <rects>
        <_>
          15 9 3 1 -1.</_>
        <_>
          16 9 1 1 3.</_></rects>
      <tilted>0</tilted></_>
    <_>
      <rects>
        <_>
          15 10 3 1 -1.</_>
        <_>
          16 10 1 1 3.</_></rects>
      <tilted>0</tilted></_>
    <_>
      <rects>
        <_>
          15 11 3 2 -1.</_>
        <_>
          16 11 1 2 3.</_></rects>
      <tilted>0</tilted></_>
    <_>
      <rects>
        <_>
          15 14 6 4 -1.</_>
        <_>
          15 14 3 2 2.</_>
        <_>
          18 16 3 2 2.</_></rects>
      <tilted>0</tilted></_>
    <_>
      <rects>
        <_>
          16 7 4 7 -1.</_>
        <_>
          18 7 2 7 2.</_></rects>
      <tilted>0</tilted></_>
    <_>
      <rects>
        <_>
          16 8 3 5 -1.</_>
        <_>
          17 8 1 5 3.</_></rects>
      <tilted>0</tilted></_>
    <_>
      <rects>
        <_>
          17 0 6 6 -1.</_>
        <_>
          19 0 2 6 3.</_></rects>
      <tilted>0</tilted></_>
    <_>
      <rects>
        <_>
          18 10 6 6 -1.</_>
        <_>
          18 10 3 3 2.</_>
        <_>
          21 13 3 3 2.</_></rects>
      <tilted>0</tilted></_>
    <_>
      <rects>
        <_>
          20 4 4 7 -1.</_>
        <_>
          22 4 2 7 2.</_></rects>
      <tilted>0</tilted></_></features></cascade>
</opencv_storage>
